{"weights": [[[-0.8665479205983462, -0.9325948549635443, 0.4111339842765227, 0.7158778208064499, -0.06843147537271027, -0.5111136103063889, 0.41182695765615834, 0.008637274348044186, -0.42559662521840647], [0.49836270413511274, -0.114719142239417, -0.9659544336542386, 0.36774154122472624, 0.8912043617076628, 0.906051117235771, -0.648738953518035, -0.9065078427361526, 0.8309685581549945], [0.47543688617287716, -1.4378365250869787, -0.2866173608797682, -1.3844286906554835, 0.6437090971512133, -0.168676783847178, 0.7551642192107687, -0.08756940959423747, 0.40707548296474116], [-0.4562335188787175, 1.548239135864301, 0.19091938906959552, 0.041362402392846116, -0.0802314809309784, 0.2832894923243519, -0.9463242831368993, 1.3251304428635624, -0.05910483271406242], [1.2060113764541653, -1.9322367876535607, 0.498276965419815, -1.5018841892981092, 1.6766584647349405, -1.4717721165136017, 0.03897296701770507, 0.6251728834357424, 0.8635914214472686], [-0.9522320495078015, -0.4121812941077942, 0.6222668652564306, -0.6526533430606557, -0.7623261996995039, 0.0025481997997400087, 0.9219991702398654, 0.6953085880752594, -0.6401228051689382], [-0.30717637861579455, 0.2836708895786194, 0.1066316343647659, -0.3872411682799637, 0.20884883538092056, -0.08718438454435372, -0.12609415662483794, -0.2856924488105389, -1.033765966692011], [-0.5593142215760356, 0.8833173498064015, -1.589092659642644, 1.5160077503335034, 0.5320415317157714, -0.24361127934272436, -0.7009538757458176, 0.651490123243767, 0.23369591553782806], [-0.2240105456816147, -0.10483582476396477, 1.4607492881391926, 0.5029841525422504, 0.29594717869705695, -1.4467520018729345, 0.164425252018697, 0.13668037582486997, -0.003082245530517531], [-0.019343862279359834, -0.5687674177575971, 0.025817629638401146, -0.9594012409359668, 0.04347489678910546, 1.4194148794721122, -0.6653137332956794, -0.5488848168305179, 0.07596235394416644], [0.261831347431163, -0.9981651122976257, -0.7295101912481752, -0.2542848183457137, 0.6588745122182433, 0.29893343498328295, -0.4028743199640734, -0.6887998607804888, -0.42582803748422837], [-0.8337306764020261, -0.004283891986653807, 0.8567803450745077, -0.9281617576790724, 0.8000482906966737, 0.6492516268471409, -0.008008102526970212, 0.46585048989482275, -0.0993495148792017], [0.5253518172278606, -0.010869913616849402, 0.4204437620246105, 0.37757864885916964, 1.0009907110202716, -0.29226084234027805, -0.004232548282036411, 0.22249004757509394, 0.7151990906247405], [1.058270327764822, -0.7480224081455785, 0.01751303661090309, -1.6482198103386856, -0.1684943896468711, -1.0887632458033685, 1.2900460657211845, -0.783268484857708, 0.09046721441330537], [0.12331111211843139, 0.6889348103520981, 0.6751234742038098, 1.2974046142537259, 0.31290618176519086, 1.1060870729741454, 0.2669014927561877, -1.0104465203304458, -0.72080372338227], [-0.575668146442639, 1.1105423931530347, 1.0228151123802995, 1.0734661612949636, -0.28810025320418853, 0.5239052866551224, -1.2165388577786733, -0.43563725521523916, -0.7898964605408151], [-0.8408342517667315, -0.4041802414107147, -0.9992104977337838, -0.43415300759951614, -0.24055181626921296, 0.29369747543995983, 0.18096185215237676, -0.5478067596948257, -0.7838080945952687], [-0.14193713359444743, -0.5179662897054977, 0.9238740096310765, -0.7449532541499302, -0.47462046182379897, 0.921548200603083, 0.22654720023245517, -0.013015905061195526, -0.2612656550122403]], [[-0.8542846751344755, 0.5491882119894513, -3.032387824307174, 1.7552819707886091, -4.424813220824303, -0.7631187527887371, -0.5582914124452897, 2.6821010414309336, -1.7078058967160414, 0.3741622105297116, -0.7180894188748176, -0.6176546159046451, -0.5247917728636738, -3.3061804185483523, 0.17632938093617348, 0.9972898218770168, -0.05490481730181821, -1.2062688548502174]]], "biases": [[-0.6640129873477797, -1.2096746142098556, 1.059515537678769, -0.606657587435254, 1.7746803464681347, 0.7350770481697487, -0.13282309367334905, -1.6265404358455777, 0.6142421767332098, -1.0385432630460278, -0.6112293349962591, 0.4242530808458053, -0.9658903303247492, 0.7514943299767799, -0.030653815422419465, 0.11637271987745675, -0.058371282019186496, 0.4431989323051104], [-2.469240335095147]]}